{
  "input_nodes": 5,
  "hidden_nodes": 10,
  "output_nodes": 2,
  "weights_ih": {
    "rows": 10,
    "cols": 5,
    "data": [
      [
        0.10207906227504004,
        -0.7233685565084632,
        0.8506445528345576,
        -0.2947292276612766,
        -0.8778990274935913
      ],
      [
        2.551680710506154,
        -2.3254419657734537,
        -0.929010686340264,
        -1.502826001499102,
        -0.040317418988870424
      ],
      [
        -2.1966938399123404,
        0.8496157553885869,
        0.9871062141079359,
        0.01569000575714355,
        0.008060861894616494
      ],
      [
        -0.524800830921784,
        -0.275041264663872,
        0.31847313801846083,
        2.371518415601564,
        -0.06097073213949422
      ],
      [
        -0.18354154249483112,
        -0.09763694649345267,
        -1.5558239383338346,
        -0.7818415698008784,
        -0.6521536839208301
      ],
      [
        0.542744214691823,
        -0.45019683597356447,
        -0.3313096664732619,
        -1.1291669174945804,
        0.4117655545615051
      ],
      [
        -1.3035225383855515,
        2.3524495320654157,
        1.3837636432557177,
        0.8413620414796313,
        -0.01014281237631487
      ],
      [
        0.2761279021048513,
        -0.8067580075181238,
        0.4435816582375064,
        0.9792743559645783,
        -0.2193915968107661
      ],
      [
        1.9089310485291522,
        -0.7354882700661847,
        0.500342896322713,
        -1.17868746824981,
        0.3619539840885573
      ],
      [
        1.4719057098752797,
        -0.17132192866847923,
        0.611078657857631,
        0.11804826276681468,
        0.2887008424131704
      ]
    ]
  },
  "weights_ho": {
    "rows": 2,
    "cols": 10,
    "data": [
      [
        0.6570186010278039,
        0.12215017386471558,
        -0.5127773454846023,
        0.3451718945774147,
        1.1118878146689781,
        -0.296108453614881,
        1.260534364599202,
        -1.1587625701260489,
        -0.8910945614613488,
        -1.1416305316526634
      ],
      [
        0.9404029763044213,
        0.9885511065579637,
        -2.6536270652634344,
        -0.16157205340308411,
        -0.6432405881326231,
        1.1631738165967895,
        -0.18337898719278278,
        0.6449671698250428,
        0.7394400660899312,
        -0.34057287481186466
      ]
    ]
  },
  "bias_h": {
    "rows": 10,
    "cols": 1,
    "data": [
      [
        -1.5512432299580583
      ],
      [
        -0.19022944009860812
      ],
      [
        0.9799114306400584
      ],
      [
        -1.1139624135338833
      ],
      [
        -0.3099552281134235
      ],
      [
        0.38414218669007694
      ],
      [
        -0.5683651683299213
      ],
      [
        0.6755510859950812
      ],
      [
        0.10795030482299575
      ],
      [
        -0.6758468707824966
      ]
    ]
  },
  "bias_o": {
    "rows": 2,
    "cols": 1,
    "data": [
      [
        1.1110598580365858
      ],
      [
        -0.7693474641141522
      ]
    ]
  },
  "gen": 85
}
